digraph Tree {
node [shape=box, style="filled", color="black", fontname="helvetica"] ;
edge [fontname="helvetica"] ;
0 [label="Weight <= 0.451\ngini = 0.855\nsamples = 1096\nvalue = [215.0, 216.0, 284.0, 240.0, 281.0, 235.0, 217.0]\nclass = Overweight_Level_I", fillcolor="#ffffff"] ;
1 [label="Weight <= -0.939\ngini = 0.8\nsamples = 709\nvalue = [215, 216, 196, 2, 0, 235, 206]\nclass = Obesity_Type_II", fillcolor="#fdfbfe"] ;
0 -> 1 [labeldistance=2.5, labelangle=45, headlabel="True"] ;
2 [label="CAEC_Always <= 0.5\ngini = 0.488\nsamples = 226\nvalue = [212, 122, 0, 0, 0, 7, 1]\nclass = Insufficient_Weight", fillcolor="#f4cbae"] ;
1 -> 2 ;
3 [label="Weight <= -1.297\ngini = 0.481\nsamples = 220\nvalue = [212, 115, 0, 0, 0, 7, 1]\nclass = Insufficient_Weight", fillcolor="#f4c7a8"] ;
2 -> 3 ;
4 [label="Weight <= -1.596\ngini = 0.293\nsamples = 117\nvalue = [157, 34, 0, 0, 0, 0, 0]\nclass = Insufficient_Weight", fillcolor="#eb9c64"] ;
3 -> 4 ;
5 [label="gini = 0.0\nsamples = 40\nvalue = [71, 0, 0, 0, 0, 0, 0]\nclass = Insufficient_Weight", fillcolor="#e58139"] ;
4 -> 5 ;
6 [label="TUE <= -1.015\ngini = 0.406\nsamples = 77\nvalue = [86, 34, 0, 0, 0, 0, 0]\nclass = Insufficient_Weight", fillcolor="#efb387"] ;
4 -> 6 ;
7 [label="NCP <= 0.473\ngini = 0.475\nsamples = 16\nvalue = [12, 19, 0, 0, 0, 0, 0]\nclass = Normal_Weight", fillcolor="#e4f5b6"] ;
6 -> 7 ;
8 [label="NCP <= -0.877\ngini = 0.417\nsamples = 13\nvalue = [8, 19, 0, 0, 0, 0, 0]\nclass = Normal_Weight", fillcolor="#d5f08c"] ;
7 -> 8 ;
9 [label="gini = 0.0\nsamples = 2\nvalue = [0, 3, 0, 0, 0, 0, 0]\nclass = Normal_Weight", fillcolor="#b7e539"] ;
8 -> 9 ;
10 [label="Weight <= -1.537\ngini = 0.444\nsamples = 11\nvalue = [8, 16, 0, 0, 0, 0, 0]\nclass = Normal_Weight", fillcolor="#dbf29c"] ;
8 -> 10 ;
11 [label="family_history_with_overweight_yes <= 0.5\ngini = 0.198\nsamples = 5\nvalue = [8, 1, 0, 0, 0, 0, 0]\nclass = Insufficient_Weight", fillcolor="#e89152"] ;
10 -> 11 ;
12 [label="CAEC_Sometimes <= 0.5\ngini = 0.32\nsamples = 3\nvalue = [4, 1, 0, 0, 0, 0, 0]\nclass = Insufficient_Weight", fillcolor="#eca06a"] ;
11 -> 12 ;
13 [label="gini = 0.0\nsamples = 2\nvalue = [4, 0, 0, 0, 0, 0, 0]\nclass = Insufficient_Weight", fillcolor="#e58139"] ;
12 -> 13 ;
14 [label="gini = 0.0\nsamples = 1\nvalue = [0, 1, 0, 0, 0, 0, 0]\nclass = Normal_Weight", fillcolor="#b7e539"] ;
12 -> 14 ;
15 [label="gini = 0.0\nsamples = 2\nvalue = [4, 0, 0, 0, 0, 0, 0]\nclass = Insufficient_Weight", fillcolor="#e58139"] ;
11 -> 15 ;
16 [label="gini = 0.0\nsamples = 6\nvalue = [0, 15, 0, 0, 0, 0, 0]\nclass = Normal_Weight", fillcolor="#b7e539"] ;
10 -> 16 ;
17 [label="gini = 0.0\nsamples = 3\nvalue = [4, 0, 0, 0, 0, 0, 0]\nclass = Insufficient_Weight", fillcolor="#e58139"] ;
7 -> 17 ;
18 [label="Height <= -0.578\ngini = 0.28\nsamples = 61\nvalue = [74, 15, 0, 0, 0, 0, 0]\nclass = Insufficient_Weight", fillcolor="#ea9b61"] ;
6 -> 18 ;
19 [label="family_history_with_overweight_yes <= 0.5\ngini = 0.208\nsamples = 10\nvalue = [2, 15, 0, 0, 0, 0, 0]\nclass = Normal_Weight", fillcolor="#c1e853"] ;
18 -> 19 ;
20 [label="SMOKE_yes <= 0.5\ngini = 0.32\nsamples = 5\nvalue = [2, 8, 0, 0, 0, 0, 0]\nclass = Normal_Weight", fillcolor="#c9ec6a"] ;
19 -> 20 ;
21 [label="gini = 0.0\nsamples = 4\nvalue = [0, 8, 0, 0, 0, 0, 0]\nclass = Normal_Weight", fillcolor="#b7e539"] ;
20 -> 21 ;
22 [label="gini = 0.0\nsamples = 1\nvalue = [2, 0, 0, 0, 0, 0, 0]\nclass = Insufficient_Weight", fillcolor="#e58139"] ;
20 -> 22 ;
23 [label="gini = 0.0\nsamples = 5\nvalue = [0, 7, 0, 0, 0, 0, 0]\nclass = Normal_Weight", fillcolor="#b7e539"] ;
19 -> 23 ;
24 [label="gini = 0.0\nsamples = 51\nvalue = [72, 0, 0, 0, 0, 0, 0]\nclass = Insufficient_Weight", fillcolor="#e58139"] ;
18 -> 24 ;
25 [label="CALC_no <= 0.5\ngini = 0.535\nsamples = 103\nvalue = [55, 81, 0, 0, 0, 7, 1]\nclass = Normal_Weight", fillcolor="#eaf7c5"] ;
3 -> 25 ;
26 [label="SCC_no <= 0.5\ngini = 0.386\nsamples = 48\nvalue = [8, 53, 0, 0, 0, 7, 1]\nclass = Normal_Weight", fillcolor="#caec6d"] ;
25 -> 26 ;
27 [label="Height <= -1.083\ngini = 0.579\nsamples = 8\nvalue = [1, 5, 0, 0, 0, 5, 0]\nclass = Normal_Weight", fillcolor="#ffffff"] ;
26 -> 27 ;
28 [label="MTRANS_Public_Transportation <= 0.5\ngini = 0.278\nsamples = 5\nvalue = [0, 1, 0, 0, 0, 5, 0]\nclass = Obesity_Type_II", fillcolor="#c161ea"] ;
27 -> 28 ;
29 [label="gini = 0.0\nsamples = 1\nvalue = [0, 1, 0, 0, 0, 0, 0]\nclass = Normal_Weight", fillcolor="#b7e539"] ;
28 -> 29 ;
30 [label="gini = 0.0\nsamples = 4\nvalue = [0, 0, 0, 0, 0, 5, 0]\nclass = Obesity_Type_II", fillcolor="#b139e5"] ;
28 -> 30 ;
31 [label="MTRANS_Automobile <= 0.5\ngini = 0.32\nsamples = 3\nvalue = [1, 4, 0, 0, 0, 0, 0]\nclass = Normal_Weight", fillcolor="#c9ec6a"] ;
27 -> 31 ;
32 [label="gini = 0.0\nsamples = 2\nvalue = [0, 4, 0, 0, 0, 0, 0]\nclass = Normal_Weight", fillcolor="#b7e539"] ;
31 -> 32 ;
33 [label="gini = 0.0\nsamples = 1\nvalue = [1, 0, 0, 0, 0, 0, 0]\nclass = Insufficient_Weight", fillcolor="#e58139"] ;
31 -> 33 ;
34 [label="TUE <= 0.25\ngini = 0.299\nsamples = 40\nvalue = [7, 48, 0, 0, 0, 2, 1]\nclass = Normal_Weight", fillcolor="#c5ea60"] ;
26 -> 34 ;
35 [label="TUE <= -1.069\ngini = 0.397\nsamples = 26\nvalue = [6, 28, 0, 0, 0, 2, 1]\nclass = Normal_Weight", fillcolor="#cced72"] ;
34 -> 35 ;
36 [label="Age <= 1.784\ngini = 0.272\nsamples = 23\nvalue = [2, 28, 0, 0, 0, 2, 1]\nclass = Normal_Weight", fillcolor="#c3e959"] ;
35 -> 36 ;
37 [label="SMOKE_yes <= 0.5\ngini = 0.229\nsamples = 22\nvalue = [2, 28, 0, 0, 0, 1, 1]\nclass = Normal_Weight", fillcolor="#c1e853"] ;
36 -> 37 ;
38 [label="FCVC <= 0.145\ngini = 0.184\nsamples = 20\nvalue = [2, 27, 0, 0, 0, 1, 0]\nclass = Normal_Weight", fillcolor="#bfe84e"] ;
37 -> 38 ;
39 [label="gini = 0.0\nsamples = 10\nvalue = [0, 15, 0, 0, 0, 0, 0]\nclass = Normal_Weight", fillcolor="#b7e539"] ;
38 -> 39 ;
40 [label="Height <= 0.251\ngini = 0.338\nsamples = 10\nvalue = [2, 12, 0, 0, 0, 1, 0]\nclass = Normal_Weight", fillcolor="#c8eb67"] ;
38 -> 40 ;
41 [label="gini = 0.142\nsamples = 9\nvalue = [0, 12, 0, 0, 0, 1, 0]\nclass = Normal_Weight", fillcolor="#bde749"] ;
40 -> 41 ;
42 [label="gini = 0.0\nsamples = 1\nvalue = [2, 0, 0, 0, 0, 0, 0]\nclass = Insufficient_Weight", fillcolor="#e58139"] ;
40 -> 42 ;
43 [label="Weight <= -0.981\ngini = 0.5\nsamples = 2\nvalue = [0, 1, 0, 0, 0, 0, 1]\nclass = Normal_Weight", fillcolor="#ffffff"] ;
37 -> 43 ;
44 [label="gini = 0.0\nsamples = 1\nvalue = [0, 0, 0, 0, 0, 0, 1]\nclass = Obesity_Type_III", fillcolor="#e53986"] ;
43 -> 44 ;
45 [label="gini = 0.0\nsamples = 1\nvalue = [0, 1, 0, 0, 0, 0, 0]\nclass = Normal_Weight", fillcolor="#b7e539"] ;
43 -> 45 ;
46 [label="gini = 0.0\nsamples = 1\nvalue = [0, 0, 0, 0, 0, 1, 0]\nclass = Obesity_Type_II", fillcolor="#b139e5"] ;
36 -> 46 ;
47 [label="gini = 0.0\nsamples = 3\nvalue = [4, 0, 0, 0, 0, 0, 0]\nclass = Insufficient_Weight", fillcolor="#e58139"] ;
35 -> 47 ;
48 [label="FAF <= 0.286\ngini = 0.091\nsamples = 14\nvalue = [1, 20, 0, 0, 0, 0, 0]\nclass = Normal_Weight", fillcolor="#bbe643"] ;
34 -> 48 ;
49 [label="gini = 0.0\nsamples = 8\nvalue = [0, 11, 0, 0, 0, 0, 0]\nclass = Normal_Weight", fillcolor="#b7e539"] ;
48 -> 49 ;
50 [label="MTRANS_Walking <= 0.5\ngini = 0.18\nsamples = 6\nvalue = [1, 9, 0, 0, 0, 0, 0]\nclass = Normal_Weight", fillcolor="#bfe84f"] ;
48 -> 50 ;
51 [label="Gender_Male <= 0.5\ngini = 0.245\nsamples = 5\nvalue = [1, 6, 0, 0, 0, 0, 0]\nclass = Normal_Weight", fillcolor="#c3e95a"] ;
50 -> 51 ;
52 [label="gini = 0.0\nsamples = 2\nvalue = [0, 4, 0, 0, 0, 0, 0]\nclass = Normal_Weight", fillcolor="#b7e539"] ;
51 -> 52 ;
53 [label="Weight <= -1.177\ngini = 0.444\nsamples = 3\nvalue = [1, 2, 0, 0, 0, 0, 0]\nclass = Normal_Weight", fillcolor="#dbf29c"] ;
51 -> 53 ;
54 [label="gini = 0.0\nsamples = 1\nvalue = [1, 0, 0, 0, 0, 0, 0]\nclass = Insufficient_Weight", fillcolor="#e58139"] ;
53 -> 54 ;
55 [label="gini = 0.0\nsamples = 2\nvalue = [0, 2, 0, 0, 0, 0, 0]\nclass = Normal_Weight", fillcolor="#b7e539"] ;
53 -> 55 ;
56 [label="gini = 0.0\nsamples = 1\nvalue = [0, 3, 0, 0, 0, 0, 0]\nclass = Normal_Weight", fillcolor="#b7e539"] ;
50 -> 56 ;
57 [label="NCP <= 0.46\ngini = 0.468\nsamples = 55\nvalue = [47, 28, 0, 0, 0, 0, 0]\nclass = Insufficient_Weight", fillcolor="#f4ccaf"] ;
25 -> 57 ;
58 [label="TUE <= -0.723\ngini = 0.35\nsamples = 24\nvalue = [7, 24, 0, 0, 0, 0, 0]\nclass = Normal_Weight", fillcolor="#cced73"] ;
57 -> 58 ;
59 [label="gini = 0.0\nsamples = 8\nvalue = [0, 11, 0, 0, 0, 0, 0]\nclass = Normal_Weight", fillcolor="#b7e539"] ;
58 -> 59 ;
60 [label="FAF <= 0.15\ngini = 0.455\nsamples = 16\nvalue = [7, 13, 0, 0, 0, 0, 0]\nclass = Normal_Weight", fillcolor="#def3a4"] ;
58 -> 60 ;
61 [label="gini = 0.0\nsamples = 8\nvalue = [0, 12, 0, 0, 0, 0, 0]\nclass = Normal_Weight", fillcolor="#b7e539"] ;
60 -> 61 ;
62 [label="SCC_yes <= 0.5\ngini = 0.219\nsamples = 8\nvalue = [7, 1, 0, 0, 0, 0, 0]\nclass = Insufficient_Weight", fillcolor="#e99355"] ;
60 -> 62 ;
63 [label="gini = 0.0\nsamples = 7\nvalue = [7, 0, 0, 0, 0, 0, 0]\nclass = Insufficient_Weight", fillcolor="#e58139"] ;
62 -> 63 ;
64 [label="gini = 0.0\nsamples = 1\nvalue = [0, 1, 0, 0, 0, 0, 0]\nclass = Normal_Weight", fillcolor="#b7e539"] ;
62 -> 64 ;
65 [label="FCVC <= -0.674\ngini = 0.165\nsamples = 31\nvalue = [40, 4, 0, 0, 0, 0, 0]\nclass = Insufficient_Weight", fillcolor="#e88e4d"] ;
57 -> 65 ;
66 [label="MTRANS_Automobile <= 0.5\ngini = 0.426\nsamples = 10\nvalue = [9, 4, 0, 0, 0, 0, 0]\nclass = Insufficient_Weight", fillcolor="#f1b991"] ;
65 -> 66 ;
67 [label="CAEC_Frequently <= 0.5\ngini = 0.444\nsamples = 4\nvalue = [2, 4, 0, 0, 0, 0, 0]\nclass = Normal_Weight", fillcolor="#dbf29c"] ;
66 -> 67 ;
68 [label="gini = 0.0\nsamples = 1\nvalue = [2, 0, 0, 0, 0, 0, 0]\nclass = Insufficient_Weight", fillcolor="#e58139"] ;
67 -> 68 ;
69 [label="gini = 0.0\nsamples = 3\nvalue = [0, 4, 0, 0, 0, 0, 0]\nclass = Normal_Weight", fillcolor="#b7e539"] ;
67 -> 69 ;
70 [label="gini = 0.0\nsamples = 6\nvalue = [7, 0, 0, 0, 0, 0, 0]\nclass = Insufficient_Weight", fillcolor="#e58139"] ;
66 -> 70 ;
71 [label="gini = 0.0\nsamples = 21\nvalue = [31, 0, 0, 0, 0, 0, 0]\nclass = Insufficient_Weight", fillcolor="#e58139"] ;
65 -> 71 ;
72 [label="gini = 0.0\nsamples = 6\nvalue = [0, 7, 0, 0, 0, 0, 0]\nclass = Normal_Weight", fillcolor="#b7e539"] ;
2 -> 72 ;
73 [label="FAVC_no <= 0.5\ngini = 0.733\nsamples = 483\nvalue = [3.0, 94.0, 196.0, 2.0, 0.0, 228.0, 205.0]\nclass = Obesity_Type_II", fillcolor="#fcf6fe"] ;
1 -> 73 ;
74 [label="Gender_Male <= 0.5\ngini = 0.724\nsamples = 413\nvalue = [3.0, 69.0, 191.0, 1.0, 0.0, 210.0, 155.0]\nclass = Obesity_Type_II", fillcolor="#fcf6fe"] ;
73 -> 74 ;
75 [label="Weight <= -0.406\ngini = 0.637\nsamples = 181\nvalue = [0, 14, 132, 0, 0, 90, 37]\nclass = Overweight_Level_I", fillcolor="#d2f9d6"] ;
74 -> 75 ;
76 [label="Weight <= -0.904\ngini = 0.347\nsamples = 53\nvalue = [0.0, 14.0, 2.0, 0.0, 0.0, 68.0, 2.0]\nclass = Obesity_Type_II", fillcolor="#c46aec"] ;
75 -> 76 ;
77 [label="FAF <= -0.257\ngini = 0.5\nsamples = 7\nvalue = [0, 8, 0, 0, 0, 8, 0]\nclass = Normal_Weight", fillcolor="#ffffff"] ;
76 -> 77 ;
78 [label="gini = 0.0\nsamples = 3\nvalue = [0, 0, 0, 0, 0, 6, 0]\nclass = Obesity_Type_II", fillcolor="#b139e5"] ;
77 -> 78 ;
79 [label="FAF <= 0.005\ngini = 0.32\nsamples = 4\nvalue = [0, 8, 0, 0, 0, 2, 0]\nclass = Normal_Weight", fillcolor="#c9ec6a"] ;
77 -> 79 ;
80 [label="gini = 0.0\nsamples = 2\nvalue = [0, 6, 0, 0, 0, 0, 0]\nclass = Normal_Weight", fillcolor="#b7e539"] ;
79 -> 80 ;
81 [label="FCVC <= -1.481\ngini = 0.5\nsamples = 2\nvalue = [0, 2, 0, 0, 0, 2, 0]\nclass = Normal_Weight", fillcolor="#ffffff"] ;
79 -> 81 ;
82 [label="gini = 0.0\nsamples = 1\nvalue = [0, 2, 0, 0, 0, 0, 0]\nclass = Normal_Weight", fillcolor="#b7e539"] ;
81 -> 82 ;
83 [label="gini = 0.0\nsamples = 1\nvalue = [0, 0, 0, 0, 0, 2, 0]\nclass = Obesity_Type_II", fillcolor="#b139e5"] ;
81 -> 83 ;
84 [label="Age <= 1.771\ngini = 0.256\nsamples = 46\nvalue = [0, 6, 2, 0, 0, 60, 2]\nclass = Obesity_Type_II", fillcolor="#bd58e9"] ;
76 -> 84 ;
85 [label="MTRANS_Public_Transportation <= 0.5\ngini = 0.231\nsamples = 41\nvalue = [0, 6, 0, 0, 0, 54, 2]\nclass = Obesity_Type_II", fillcolor="#bc55e9"] ;
84 -> 85 ;
86 [label="Age <= 0.198\ngini = 0.278\nsamples = 11\nvalue = [0, 2, 0, 0, 0, 10, 0]\nclass = Obesity_Type_II", fillcolor="#c161ea"] ;
85 -> 86 ;
87 [label="gini = 0.0\nsamples = 2\nvalue = [0, 2, 0, 0, 0, 0, 0]\nclass = Normal_Weight", fillcolor="#b7e539"] ;
86 -> 87 ;
88 [label="gini = 0.0\nsamples = 9\nvalue = [0, 0, 0, 0, 0, 10, 0]\nclass = Obesity_Type_II", fillcolor="#b139e5"] ;
86 -> 88 ;
89 [label="NCP <= -2.148\ngini = 0.218\nsamples = 30\nvalue = [0, 4, 0, 0, 0, 44, 2]\nclass = Obesity_Type_II", fillcolor="#bb53e8"] ;
85 -> 89 ;
90 [label="FAF <= -0.035\ngini = 0.32\nsamples = 6\nvalue = [0, 0, 0, 0, 0, 8, 2]\nclass = Obesity_Type_II", fillcolor="#c46aec"] ;
89 -> 90 ;
91 [label="gini = 0.0\nsamples = 4\nvalue = [0, 0, 0, 0, 0, 6, 0]\nclass = Obesity_Type_II", fillcolor="#b139e5"] ;
90 -> 91 ;
92 [label="SCC_no <= 0.5\ngini = 0.5\nsamples = 2\nvalue = [0, 0, 0, 0, 0, 2, 2]\nclass = Obesity_Type_II", fillcolor="#ffffff"] ;
90 -> 92 ;
93 [label="gini = 0.0\nsamples = 1\nvalue = [0, 0, 0, 0, 0, 2, 0]\nclass = Obesity_Type_II", fillcolor="#b139e5"] ;
92 -> 93 ;
94 [label="gini = 0.0\nsamples = 1\nvalue = [0, 0, 0, 0, 0, 0, 2]\nclass = Obesity_Type_III", fillcolor="#e53986"] ;
92 -> 94 ;
95 [label="FCVC <= -2.473\ngini = 0.18\nsamples = 24\nvalue = [0, 4, 0, 0, 0, 36, 0]\nclass = Obesity_Type_II", fillcolor="#ba4fe8"] ;
89 -> 95 ;
96 [label="gini = 0.0\nsamples = 1\nvalue = [0, 2, 0, 0, 0, 0, 0]\nclass = Normal_Weight", fillcolor="#b7e539"] ;
95 -> 96 ;
97 [label="Age <= -0.38\ngini = 0.1\nsamples = 23\nvalue = [0, 2, 0, 0, 0, 36, 0]\nclass = Obesity_Type_II", fillcolor="#b544e6"] ;
95 -> 97 ;
98 [label="gini = 0.0\nsamples = 17\nvalue = [0, 0, 0, 0, 0, 31, 0]\nclass = Obesity_Type_II", fillcolor="#b139e5"] ;
97 -> 98 ;
99 [label="FAF <= -0.134\ngini = 0.408\nsamples = 6\nvalue = [0, 2, 0, 0, 0, 5, 0]\nclass = Obesity_Type_II", fillcolor="#d088ef"] ;
97 -> 99 ;
100 [label="gini = 0.0\nsamples = 3\nvalue = [0, 0, 0, 0, 0, 4, 0]\nclass = Obesity_Type_II", fillcolor="#b139e5"] ;
99 -> 100 ;
101 [label="gini = 0.444\nsamples = 3\nvalue = [0, 2, 0, 0, 0, 1, 0]\nclass = Normal_Weight", fillcolor="#dbf29c"] ;
99 -> 101 ;
102 [label="Age <= 1.96\ngini = 0.375\nsamples = 5\nvalue = [0, 0, 2, 0, 0, 6, 0]\nclass = Obesity_Type_II", fillcolor="#cb7bee"] ;
84 -> 102 ;
103 [label="gini = 0.0\nsamples = 1\nvalue = [0, 0, 2, 0, 0, 0, 0]\nclass = Overweight_Level_I", fillcolor="#39e54d"] ;
102 -> 103 ;
104 [label="gini = 0.0\nsamples = 4\nvalue = [0, 0, 0, 0, 0, 6, 0]\nclass = Obesity_Type_II", fillcolor="#b139e5"] ;
102 -> 104 ;
105 [label="NCP <= -1.441\ngini = 0.468\nsamples = 128\nvalue = [0, 0, 130, 0, 0, 22, 35]\nclass = Overweight_Level_I", fillcolor="#83ef90"] ;
75 -> 105 ;
106 [label="Weight <= -0.244\ngini = 0.35\nsamples = 45\nvalue = [0, 0, 53, 0, 0, 14, 1]\nclass = Overweight_Level_I", fillcolor="#70ec7e"] ;
105 -> 106 ;
107 [label="CH2O <= 0.379\ngini = 0.484\nsamples = 20\nvalue = [0, 0, 20, 0, 0, 14, 0]\nclass = Overweight_Level_I", fillcolor="#c4f7ca"] ;
106 -> 107 ;
108 [label="Weight <= -0.289\ngini = 0.278\nsamples = 15\nvalue = [0, 0, 20, 0, 0, 4, 0]\nclass = Overweight_Level_I", fillcolor="#61ea71"] ;
107 -> 108 ;
109 [label="family_history_with_overweight_no <= 0.5\ngini = 0.48\nsamples = 6\nvalue = [0, 0, 6, 0, 0, 4, 0]\nclass = Overweight_Level_I", fillcolor="#bdf6c4"] ;
108 -> 109 ;
110 [label="MTRANS_Automobile <= 0.5\ngini = 0.5\nsamples = 5\nvalue = [0, 0, 4, 0, 0, 4, 0]\nclass = Overweight_Level_I", fillcolor="#ffffff"] ;
109 -> 110 ;
111 [label="Weight <= -0.322\ngini = 0.49\nsamples = 4\nvalue = [0, 0, 3, 0, 0, 4, 0]\nclass = Obesity_Type_II", fillcolor="#eccef8"] ;
110 -> 111 ;
112 [label="gini = 0.0\nsamples = 1\nvalue = [0, 0, 3, 0, 0, 0, 0]\nclass = Overweight_Level_I", fillcolor="#39e54d"] ;
111 -> 112 ;
113 [label="gini = 0.0\nsamples = 3\nvalue = [0, 0, 0, 0, 0, 4, 0]\nclass = Obesity_Type_II", fillcolor="#b139e5"] ;
111 -> 113 ;
114 [label="gini = 0.0\nsamples = 1\nvalue = [0, 0, 1, 0, 0, 0, 0]\nclass = Overweight_Level_I", fillcolor="#39e54d"] ;
110 -> 114 ;
115 [label="gini = 0.0\nsamples = 1\nvalue = [0, 0, 2, 0, 0, 0, 0]\nclass = Overweight_Level_I", fillcolor="#39e54d"] ;
109 -> 115 ;
116 [label="gini = 0.0\nsamples = 9\nvalue = [0, 0, 14, 0, 0, 0, 0]\nclass = Overweight_Level_I", fillcolor="#39e54d"] ;
108 -> 116 ;
117 [label="gini = 0.0\nsamples = 5\nvalue = [0, 0, 0, 0, 0, 10, 0]\nclass = Obesity_Type_II", fillcolor="#b139e5"] ;
107 -> 117 ;
118 [label="Age <= 1.499\ngini = 0.057\nsamples = 25\nvalue = [0, 0, 33, 0, 0, 0, 1]\nclass = Overweight_Level_I", fillcolor="#3fe652"] ;
106 -> 118 ;
119 [label="gini = 0.0\nsamples = 20\nvalue = [0, 0, 29, 0, 0, 0, 0]\nclass = Overweight_Level_I", fillcolor="#39e54d"] ;
118 -> 119 ;
120 [label="Age <= 2.377\ngini = 0.32\nsamples = 5\nvalue = [0, 0, 4, 0, 0, 0, 1]\nclass = Overweight_Level_I", fillcolor="#6aec79"] ;
118 -> 120 ;
121 [label="gini = 0.0\nsamples = 1\nvalue = [0, 0, 0, 0, 0, 0, 1]\nclass = Obesity_Type_III", fillcolor="#e53986"] ;
120 -> 121 ;
122 [label="gini = 0.0\nsamples = 4\nvalue = [0, 0, 4, 0, 0, 0, 0]\nclass = Overweight_Level_I", fillcolor="#39e54d"] ;
120 -> 122 ;
123 [label="Height <= -0.542\ngini = 0.495\nsamples = 83\nvalue = [0, 0, 77, 0, 0, 8, 34]\nclass = Overweight_Level_I", fillcolor="#9bf2a5"] ;
105 -> 123 ;
124 [label="Weight <= -0.368\ngini = 0.084\nsamples = 50\nvalue = [0, 0, 65, 0, 0, 0, 3]\nclass = Overweight_Level_I", fillcolor="#42e655"] ;
123 -> 124 ;
125 [label="CALC_Sometimes <= 0.5\ngini = 0.444\nsamples = 3\nvalue = [0, 0, 2, 0, 0, 0, 1]\nclass = Overweight_Level_I", fillcolor="#9cf2a6"] ;
124 -> 125 ;
126 [label="gini = 0.0\nsamples = 1\nvalue = [0, 0, 0, 0, 0, 0, 1]\nclass = Obesity_Type_III", fillcolor="#e53986"] ;
125 -> 126 ;
127 [label="gini = 0.0\nsamples = 2\nvalue = [0, 0, 2, 0, 0, 0, 0]\nclass = Overweight_Level_I", fillcolor="#39e54d"] ;
125 -> 127 ;
128 [label="Height <= -0.585\ngini = 0.06\nsamples = 47\nvalue = [0, 0, 63, 0, 0, 0, 2]\nclass = Overweight_Level_I", fillcolor="#3fe653"] ;
124 -> 128 ;
129 [label="gini = 0.0\nsamples = 38\nvalue = [0, 0, 54, 0, 0, 0, 0]\nclass = Overweight_Level_I", fillcolor="#39e54d"] ;
128 -> 129 ;
130 [label="Age <= -0.533\ngini = 0.298\nsamples = 9\nvalue = [0, 0, 9, 0, 0, 0, 2]\nclass = Overweight_Level_I", fillcolor="#65eb75"] ;
128 -> 130 ;
131 [label="gini = 0.0\nsamples = 7\nvalue = [0, 0, 9, 0, 0, 0, 0]\nclass = Overweight_Level_I", fillcolor="#39e54d"] ;
130 -> 131 ;
132 [label="gini = 0.0\nsamples = 2\nvalue = [0, 0, 0, 0, 0, 0, 2]\nclass = Obesity_Type_III", fillcolor="#e53986"] ;
130 -> 132 ;
133 [label="Age <= -0.24\ngini = 0.551\nsamples = 33\nvalue = [0.0, 0.0, 12.0, 0.0, 0.0, 8.0, 31.0]\nclass = Obesity_Type_III", fillcolor="#f29fc4"] ;
123 -> 133 ;
134 [label="CH2O <= 1.047\ngini = 0.444\nsamples = 12\nvalue = [0, 0, 12, 0, 0, 6, 0]\nclass = Overweight_Level_I", fillcolor="#9cf2a6"] ;
133 -> 134 ;
135 [label="Weight <= -0.185\ngini = 0.32\nsamples = 10\nvalue = [0, 0, 12, 0, 0, 3, 0]\nclass = Overweight_Level_I", fillcolor="#6aec79"] ;
134 -> 135 ;
136 [label="gini = 0.0\nsamples = 3\nvalue = [0, 0, 0, 0, 0, 3, 0]\nclass = Obesity_Type_II", fillcolor="#b139e5"] ;
135 -> 136 ;
137 [label="gini = 0.0\nsamples = 7\nvalue = [0, 0, 12, 0, 0, 0, 0]\nclass = Overweight_Level_I", fillcolor="#39e54d"] ;
135 -> 137 ;
138 [label="gini = 0.0\nsamples = 2\nvalue = [0, 0, 0, 0, 0, 3, 0]\nclass = Obesity_Type_II", fillcolor="#b139e5"] ;
134 -> 138 ;
139 [label="FAF <= 1.683\ngini = 0.114\nsamples = 21\nvalue = [0, 0, 0, 0, 0, 2, 31]\nclass = Obesity_Type_III", fillcolor="#e7468e"] ;
133 -> 139 ;
140 [label="gini = 0.0\nsamples = 20\nvalue = [0, 0, 0, 0, 0, 0, 31]\nclass = Obesity_Type_III", fillcolor="#e53986"] ;
139 -> 140 ;
141 [label="gini = 0.0\nsamples = 1\nvalue = [0, 0, 0, 0, 0, 2, 0]\nclass = Obesity_Type_II", fillcolor="#b139e5"] ;
139 -> 141 ;
142 [label="family_history_with_overweight_yes <= 0.5\ngini = 0.725\nsamples = 232\nvalue = [3.0, 55.0, 59.0, 1.0, 0.0, 120.0, 118.0]\nclass = Obesity_Type_II", fillcolor="#fefdff"] ;
74 -> 142 ;
143 [label="Height <= -0.675\ngini = 0.603\nsamples = 46\nvalue = [0, 23, 2, 0, 0, 38, 9]\nclass = Obesity_Type_II", fillcolor="#e7c2f7"] ;
142 -> 143 ;
144 [label="gini = 0.0\nsamples = 16\nvalue = [0, 0, 0, 0, 0, 25, 0]\nclass = Obesity_Type_II", fillcolor="#b139e5"] ;
143 -> 144 ;
145 [label="SMOKE_yes <= 0.5\ngini = 0.646\nsamples = 30\nvalue = [0, 23, 2, 0, 0, 13, 9]\nclass = Normal_Weight", fillcolor="#eaf7c5"] ;
143 -> 145 ;
146 [label="Weight <= -0.483\ngini = 0.677\nsamples = 27\nvalue = [0, 17, 2, 0, 0, 13, 9]\nclass = Normal_Weight", fillcolor="#f5fbe3"] ;
145 -> 146 ;
147 [label="gini = 0.0\nsamples = 9\nvalue = [0, 14, 0, 0, 0, 0, 0]\nclass = Normal_Weight", fillcolor="#b7e539"] ;
146 -> 147 ;
148 [label="Weight <= -0.024\ngini = 0.639\nsamples = 18\nvalue = [0, 3, 2, 0, 0, 13, 9]\nclass = Obesity_Type_II", fillcolor="#eed3f9"] ;
146 -> 148 ;
149 [label="Height <= 0.894\ngini = 0.609\nsamples = 12\nvalue = [0, 3, 1, 0, 0, 3, 9]\nclass = Obesity_Type_III", fillcolor="#f3a4c7"] ;
148 -> 149 ;
150 [label="SCC_yes <= 0.5\ngini = 0.462\nsamples = 9\nvalue = [0, 0, 1, 0, 0, 3, 9]\nclass = Obesity_Type_III", fillcolor="#ef88b6"] ;
149 -> 150 ;
151 [label="Height <= 0.09\ngini = 0.54\nsamples = 7\nvalue = [0, 0, 1, 0, 0, 3, 6]\nclass = Obesity_Type_III", fillcolor="#f4aacb"] ;
150 -> 151 ;
152 [label="gini = 0.32\nsamples = 3\nvalue = [0, 0, 1, 0, 0, 0, 4]\nclass = Obesity_Type_III", fillcolor="#ec6aa4"] ;
151 -> 152 ;
153 [label="gini = 0.48\nsamples = 4\nvalue = [0, 0, 0, 0, 0, 3, 2]\nclass = Obesity_Type_II", fillcolor="#e5bdf6"] ;
151 -> 153 ;
154 [label="gini = 0.0\nsamples = 2\nvalue = [0, 0, 0, 0, 0, 0, 3]\nclass = Obesity_Type_III", fillcolor="#e53986"] ;
150 -> 154 ;
155 [label="gini = 0.0\nsamples = 3\nvalue = [0, 3, 0, 0, 0, 0, 0]\nclass = Normal_Weight", fillcolor="#b7e539"] ;
149 -> 155 ;
156 [label="Height <= 0.529\ngini = 0.165\nsamples = 6\nvalue = [0, 0, 1, 0, 0, 10, 0]\nclass = Obesity_Type_II", fillcolor="#b94de8"] ;
148 -> 156 ;
157 [label="gini = 0.0\nsamples = 1\nvalue = [0, 0, 1, 0, 0, 0, 0]\nclass = Overweight_Level_I", fillcolor="#39e54d"] ;
156 -> 157 ;
158 [label="gini = 0.0\nsamples = 5\nvalue = [0, 0, 0, 0, 0, 10, 0]\nclass = Obesity_Type_II", fillcolor="#b139e5"] ;
156 -> 158 ;
159 [label="gini = 0.0\nsamples = 3\nvalue = [0, 6, 0, 0, 0, 0, 0]\nclass = Normal_Weight", fillcolor="#b7e539"] ;
145 -> 159 ;
160 [label="NCP <= 0.497\ngini = 0.716\nsamples = 186\nvalue = [3, 32, 57, 1, 0, 82, 109]\nclass = Obesity_Type_III", fillcolor="#fce5ef"] ;
142 -> 160 ;
161 [label="MTRANS_Walking <= 0.5\ngini = 0.705\nsamples = 167\nvalue = [3, 30, 57, 1, 0, 52, 109]\nclass = Obesity_Type_III", fillcolor="#f8cadf"] ;
160 -> 161 ;
162 [label="Weight <= 0.091\ngini = 0.697\nsamples = 158\nvalue = [3, 22, 57, 1, 0, 51, 104]\nclass = Obesity_Type_III", fillcolor="#f8cce0"] ;
161 -> 162 ;
163 [label="Height <= 0.976\ngini = 0.617\nsamples = 100\nvalue = [3, 22, 1, 0, 0, 46, 76]\nclass = Obesity_Type_III", fillcolor="#f7c5db"] ;
162 -> 163 ;
164 [label="TUE <= -1.036\ngini = 0.52\nsamples = 80\nvalue = [0, 15, 1, 0, 0, 26, 76]\nclass = Obesity_Type_III", fillcolor="#f193bd"] ;
163 -> 164 ;
165 [label="Height <= 0.479\ngini = 0.513\nsamples = 20\nvalue = [0, 3, 0, 0, 0, 18, 7]\nclass = Obesity_Type_II", fillcolor="#d697f1"] ;
164 -> 165 ;
166 [label="MTRANS_Public_Transportation <= 0.5\ngini = 0.615\nsamples = 15\nvalue = [0, 3, 0, 0, 0, 9, 7]\nclass = Obesity_Type_II", fillcolor="#f2defb"] ;
165 -> 166 ;
167 [label="gini = 0.346\nsamples = 8\nvalue = [0, 2, 0, 0, 0, 0, 7]\nclass = Obesity_Type_III", fillcolor="#ec72a9"] ;
166 -> 167 ;
168 [label="gini = 0.18\nsamples = 7\nvalue = [0, 1, 0, 0, 0, 9, 0]\nclass = Obesity_Type_II", fillcolor="#ba4fe8"] ;
166 -> 168 ;
169 [label="gini = 0.0\nsamples = 5\nvalue = [0, 0, 0, 0, 0, 9, 0]\nclass = Obesity_Type_II", fillcolor="#b139e5"] ;
165 -> 169 ;
170 [label="FCVC <= 1.032\ngini = 0.386\nsamples = 60\nvalue = [0, 12, 1, 0, 0, 8, 69]\nclass = Obesity_Type_III", fillcolor="#ec6ea7"] ;
164 -> 170 ;
171 [label="FCVC <= -2.362\ngini = 0.287\nsamples = 54\nvalue = [0, 5, 1, 0, 0, 7, 67]\nclass = Obesity_Type_III", fillcolor="#ea5c9c"] ;
170 -> 171 ;
172 [label="gini = 0.0\nsamples = 1\nvalue = [0, 1, 0, 0, 0, 0, 0]\nclass = Normal_Weight", fillcolor="#b7e539"] ;
171 -> 172 ;
173 [label="gini = 0.27\nsamples = 53\nvalue = [0, 4, 1, 0, 0, 7, 67]\nclass = Obesity_Type_III", fillcolor="#e95a9a"] ;
171 -> 173 ;
174 [label="TUE <= 1.42\ngini = 0.46\nsamples = 6\nvalue = [0, 7, 0, 0, 0, 1, 2]\nclass = Normal_Weight", fillcolor="#d2ef83"] ;
170 -> 174 ;
175 [label="gini = 0.346\nsamples = 5\nvalue = [0, 7, 0, 0, 0, 0, 2]\nclass = Normal_Weight", fillcolor="#ccec72"] ;
174 -> 175 ;
176 [label="gini = 0.0\nsamples = 1\nvalue = [0, 0, 0, 0, 0, 1, 0]\nclass = Obesity_Type_II", fillcolor="#b139e5"] ;
174 -> 176 ;
177 [label="FCVC <= 1.031\ngini = 0.491\nsamples = 20\nvalue = [3, 7, 0, 0, 0, 20, 0]\nclass = Obesity_Type_II", fillcolor="#d38ff0"] ;
163 -> 177 ;
178 [label="FAF <= 2.04\ngini = 0.32\nsamples = 14\nvalue = [0, 4, 0, 0, 0, 16, 0]\nclass = Obesity_Type_II", fillcolor="#c46aec"] ;
177 -> 178 ;
179 [label="CAEC_Always <= 0.5\ngini = 0.198\nsamples = 13\nvalue = [0, 2, 0, 0, 0, 16, 0]\nclass = Obesity_Type_II", fillcolor="#bb52e8"] ;
178 -> 179 ;
180 [label="gini = 0.208\nsamples = 12\nvalue = [0, 2, 0, 0, 0, 15, 0]\nclass = Obesity_Type_II", fillcolor="#bb53e8"] ;
179 -> 180 ;
181 [label="gini = 0.0\nsamples = 1\nvalue = [0, 0, 0, 0, 0, 1, 0]\nclass = Obesity_Type_II", fillcolor="#b139e5"] ;
179 -> 181 ;
182 [label="gini = 0.0\nsamples = 1\nvalue = [0, 2, 0, 0, 0, 0, 0]\nclass = Normal_Weight", fillcolor="#b7e539"] ;
178 -> 182 ;
183 [label="CAEC_Frequently <= 0.5\ngini = 0.66\nsamples = 6\nvalue = [3, 3, 0, 0, 0, 4, 0]\nclass = Obesity_Type_II", fillcolor="#f4e3fb"] ;
177 -> 183 ;
184 [label="gini = 0.0\nsamples = 2\nvalue = [0, 0, 0, 0, 0, 4, 0]\nclass = Obesity_Type_II", fillcolor="#b139e5"] ;
183 -> 184 ;
185 [label="Height <= 1.752\ngini = 0.5\nsamples = 4\nvalue = [3, 3, 0, 0, 0, 0, 0]\nclass = Insufficient_Weight", fillcolor="#ffffff"] ;
183 -> 185 ;
186 [label="gini = 0.0\nsamples = 2\nvalue = [0, 2, 0, 0, 0, 0, 0]\nclass = Normal_Weight", fillcolor="#b7e539"] ;
185 -> 186 ;
187 [label="gini = 0.375\nsamples = 2\nvalue = [3, 1, 0, 0, 0, 0, 0]\nclass = Insufficient_Weight", fillcolor="#eeab7b"] ;
185 -> 187 ;
188 [label="Weight <= 0.269\ngini = 0.513\nsamples = 58\nvalue = [0, 0, 56, 1, 0, 5, 28]\nclass = Overweight_Level_I", fillcolor="#a6f3af"] ;
162 -> 188 ;
189 [label="TUE <= -1.055\ngini = 0.581\nsamples = 32\nvalue = [0, 0, 25, 0, 0, 5, 21]\nclass = Overweight_Level_I", fillcolor="#e5fce7"] ;
188 -> 189 ;
190 [label="FAF <= -1.189\ngini = 0.117\nsamples = 12\nvalue = [0, 0, 15, 0, 0, 0, 1]\nclass = Overweight_Level_I", fillcolor="#46e759"] ;
189 -> 190 ;
191 [label="CAEC_Sometimes <= 0.5\ngini = 0.5\nsamples = 2\nvalue = [0, 0, 1, 0, 0, 0, 1]\nclass = Overweight_Level_I", fillcolor="#ffffff"] ;
190 -> 191 ;
192 [label="gini = 0.0\nsamples = 1\nvalue = [0, 0, 0, 0, 0, 0, 1]\nclass = Obesity_Type_III", fillcolor="#e53986"] ;
191 -> 192 ;
193 [label="gini = 0.0\nsamples = 1\nvalue = [0, 0, 1, 0, 0, 0, 0]\nclass = Overweight_Level_I", fillcolor="#39e54d"] ;
191 -> 193 ;
194 [label="gini = 0.0\nsamples = 10\nvalue = [0, 0, 14, 0, 0, 0, 0]\nclass = Overweight_Level_I", fillcolor="#39e54d"] ;
190 -> 194 ;
195 [label="CAEC_Sometimes <= 0.5\ngini = 0.571\nsamples = 20\nvalue = [0, 0, 10, 0, 0, 5, 20]\nclass = Obesity_Type_III", fillcolor="#f5b0cf"] ;
189 -> 195 ;
196 [label="MTRANS_Automobile <= 0.5\ngini = 0.444\nsamples = 2\nvalue = [0, 0, 0, 0, 0, 4, 2]\nclass = Obesity_Type_II", fillcolor="#d89cf2"] ;
195 -> 196 ;
197 [label="gini = 0.0\nsamples = 1\nvalue = [0, 0, 0, 0, 0, 0, 2]\nclass = Obesity_Type_III", fillcolor="#e53986"] ;
196 -> 197 ;
198 [label="gini = 0.0\nsamples = 1\nvalue = [0, 0, 0, 0, 0, 4, 0]\nclass = Obesity_Type_II", fillcolor="#b139e5"] ;
196 -> 198 ;
199 [label="Height <= 0.413\ngini = 0.495\nsamples = 18\nvalue = [0, 0, 10, 0, 0, 1, 18]\nclass = Obesity_Type_III", fillcolor="#f4accc"] ;
195 -> 199 ;
200 [label="gini = 0.0\nsamples = 5\nvalue = [0, 0, 10, 0, 0, 0, 0]\nclass = Overweight_Level_I", fillcolor="#39e54d"] ;
199 -> 200 ;
201 [label="gini = 0.1\nsamples = 13\nvalue = [0, 0, 0, 0, 0, 1, 18]\nclass = Obesity_Type_III", fillcolor="#e6448d"] ;
199 -> 201 ;
202 [label="CALC_Sometimes <= 0.5\ngini = 0.335\nsamples = 26\nvalue = [0.0, 0.0, 31.0, 1.0, 0.0, 0.0, 7.0]\nclass = Overweight_Level_I", fillcolor="#6bec7a"] ;
188 -> 202 ;
203 [label="TUE <= -0.746\ngini = 0.064\nsamples = 19\nvalue = [0, 0, 29, 1, 0, 0, 0]\nclass = Overweight_Level_I", fillcolor="#40e653"] ;
202 -> 203 ;
204 [label="gini = 0.0\nsamples = 1\nvalue = [0, 0, 0, 1, 0, 0, 0]\nclass = Overweight_Level_II", fillcolor="#39e5e2"] ;
203 -> 204 ;
205 [label="gini = 0.0\nsamples = 18\nvalue = [0, 0, 29, 0, 0, 0, 0]\nclass = Overweight_Level_I", fillcolor="#39e54d"] ;
203 -> 205 ;
206 [label="Age <= -0.111\ngini = 0.346\nsamples = 7\nvalue = [0, 0, 2, 0, 0, 0, 7]\nclass = Obesity_Type_III", fillcolor="#ec72a9"] ;
202 -> 206 ;
207 [label="Age <= -0.751\ngini = 0.444\nsamples = 2\nvalue = [0, 0, 2, 0, 0, 0, 1]\nclass = Overweight_Level_I", fillcolor="#9cf2a6"] ;
206 -> 207 ;
208 [label="gini = 0.0\nsamples = 1\nvalue = [0, 0, 0, 0, 0, 0, 1]\nclass = Obesity_Type_III", fillcolor="#e53986"] ;
207 -> 208 ;
209 [label="gini = 0.0\nsamples = 1\nvalue = [0, 0, 2, 0, 0, 0, 0]\nclass = Overweight_Level_I", fillcolor="#39e54d"] ;
207 -> 209 ;
210 [label="gini = 0.0\nsamples = 5\nvalue = [0, 0, 0, 0, 0, 0, 6]\nclass = Obesity_Type_III", fillcolor="#e53986"] ;
206 -> 210 ;
211 [label="CALC_no <= 0.5\ngini = 0.541\nsamples = 9\nvalue = [0, 8, 0, 0, 0, 1, 5]\nclass = Normal_Weight", fillcolor="#e7f6bd"] ;
161 -> 211 ;
212 [label="Height <= 0.412\ngini = 0.579\nsamples = 7\nvalue = [0, 5, 0, 0, 0, 1, 5]\nclass = Normal_Weight", fillcolor="#ffffff"] ;
211 -> 212 ;
213 [label="gini = 0.0\nsamples = 3\nvalue = [0, 4, 0, 0, 0, 0, 0]\nclass = Normal_Weight", fillcolor="#b7e539"] ;
212 -> 213 ;
214 [label="CH2O <= -0.831\ngini = 0.449\nsamples = 4\nvalue = [0, 1, 0, 0, 0, 1, 5]\nclass = Obesity_Type_III", fillcolor="#ee7bae"] ;
212 -> 214 ;
215 [label="gini = 0.0\nsamples = 1\nvalue = [0, 0, 0, 0, 0, 0, 2]\nclass = Obesity_Type_III", fillcolor="#e53986"] ;
214 -> 215 ;
216 [label="FCVC <= 0.145\ngini = 0.56\nsamples = 3\nvalue = [0, 1, 0, 0, 0, 1, 3]\nclass = Obesity_Type_III", fillcolor="#f29cc2"] ;
214 -> 216 ;
217 [label="gini = 0.0\nsamples = 1\nvalue = [0, 0, 0, 0, 0, 0, 3]\nclass = Obesity_Type_III", fillcolor="#e53986"] ;
216 -> 217 ;
218 [label="FAF <= 1.782\ngini = 0.5\nsamples = 2\nvalue = [0, 1, 0, 0, 0, 1, 0]\nclass = Normal_Weight", fillcolor="#ffffff"] ;
216 -> 218 ;
219 [label="gini = 0.0\nsamples = 1\nvalue = [0, 1, 0, 0, 0, 0, 0]\nclass = Normal_Weight", fillcolor="#b7e539"] ;
218 -> 219 ;
220 [label="gini = 0.0\nsamples = 1\nvalue = [0, 0, 0, 0, 0, 1, 0]\nclass = Obesity_Type_II", fillcolor="#b139e5"] ;
218 -> 220 ;
221 [label="gini = 0.0\nsamples = 2\nvalue = [0, 3, 0, 0, 0, 0, 0]\nclass = Normal_Weight", fillcolor="#b7e539"] ;
211 -> 221 ;
222 [label="Age <= -0.901\ngini = 0.117\nsamples = 19\nvalue = [0, 2, 0, 0, 0, 30, 0]\nclass = Obesity_Type_II", fillcolor="#b646e7"] ;
160 -> 222 ;
223 [label="gini = 0.0\nsamples = 1\nvalue = [0, 2, 0, 0, 0, 0, 0]\nclass = Normal_Weight", fillcolor="#b7e539"] ;
222 -> 223 ;
224 [label="gini = 0.0\nsamples = 18\nvalue = [0, 0, 0, 0, 0, 30, 0]\nclass = Obesity_Type_II", fillcolor="#b139e5"] ;
222 -> 224 ;
225 [label="Weight <= -0.359\ngini = 0.645\nsamples = 70\nvalue = [0, 25, 5, 1, 0, 18, 50]\nclass = Obesity_Type_III", fillcolor="#f6bcd6"] ;
73 -> 225 ;
226 [label="Height <= -1.095\ngini = 0.642\nsamples = 46\nvalue = [0, 24, 0, 0, 0, 13, 26]\nclass = Obesity_Type_III", fillcolor="#fef5f9"] ;
225 -> 226 ;
227 [label="gini = 0.0\nsamples = 17\nvalue = [0, 0, 0, 0, 0, 0, 22]\nclass = Obesity_Type_III", fillcolor="#e53986"] ;
226 -> 227 ;
228 [label="Age <= 0.934\ngini = 0.547\nsamples = 29\nvalue = [0, 24, 0, 0, 0, 13, 4]\nclass = Normal_Weight", fillcolor="#e3f5b1"] ;
226 -> 228 ;
229 [label="Weight <= -0.557\ngini = 0.486\nsamples = 26\nvalue = [0, 23, 0, 0, 0, 7, 4]\nclass = Normal_Weight", fillcolor="#d4f08a"] ;
228 -> 229 ;
230 [label="Weight <= -0.763\ngini = 0.287\nsamples = 17\nvalue = [0, 19, 0, 0, 0, 4, 0]\nclass = Normal_Weight", fillcolor="#c6ea63"] ;
229 -> 230 ;
231 [label="gini = 0.0\nsamples = 7\nvalue = [0, 10, 0, 0, 0, 0, 0]\nclass = Normal_Weight", fillcolor="#b7e539"] ;
230 -> 231 ;
232 [label="MTRANS_Automobile <= 0.5\ngini = 0.426\nsamples = 10\nvalue = [0, 9, 0, 0, 0, 4, 0]\nclass = Normal_Weight", fillcolor="#d7f191"] ;
230 -> 232 ;
233 [label="Weight <= -0.732\ngini = 0.494\nsamples = 8\nvalue = [0, 5, 0, 0, 0, 4, 0]\nclass = Normal_Weight", fillcolor="#f1fad7"] ;
232 -> 233 ;
234 [label="gini = 0.0\nsamples = 1\nvalue = [0, 0, 0, 0, 0, 1, 0]\nclass = Obesity_Type_II", fillcolor="#b139e5"] ;
233 -> 234 ;
235 [label="TUE <= 1.42\ngini = 0.469\nsamples = 7\nvalue = [0, 5, 0, 0, 0, 3, 0]\nclass = Normal_Weight", fillcolor="#e2f5b0"] ;
233 -> 235 ;
236 [label="CALC_no <= 0.5\ngini = 0.408\nsamples = 6\nvalue = [0, 5, 0, 0, 0, 2, 0]\nclass = Normal_Weight", fillcolor="#d4ef88"] ;
235 -> 236 ;
237 [label="gini = 0.0\nsamples = 3\nvalue = [0, 3, 0, 0, 0, 0, 0]\nclass = Normal_Weight", fillcolor="#b7e539"] ;
236 -> 237 ;
238 [label="gini = 0.5\nsamples = 3\nvalue = [0, 2, 0, 0, 0, 2, 0]\nclass = Normal_Weight", fillcolor="#ffffff"] ;
236 -> 238 ;
239 [label="gini = 0.0\nsamples = 1\nvalue = [0, 0, 0, 0, 0, 1, 0]\nclass = Obesity_Type_II", fillcolor="#b139e5"] ;
235 -> 239 ;
240 [label="gini = 0.0\nsamples = 2\nvalue = [0, 4, 0, 0, 0, 0, 0]\nclass = Normal_Weight", fillcolor="#b7e539"] ;
232 -> 240 ;
241 [label="SCC_yes <= 0.5\ngini = 0.661\nsamples = 9\nvalue = [0, 4, 0, 0, 0, 3, 4]\nclass = Normal_Weight", fillcolor="#ffffff"] ;
229 -> 241 ;
242 [label="Gender_Male <= 0.5\ngini = 0.571\nsamples = 6\nvalue = [0, 2, 0, 0, 0, 1, 4]\nclass = Obesity_Type_III", fillcolor="#f5b0cf"] ;
241 -> 242 ;
243 [label="gini = 0.0\nsamples = 3\nvalue = [0, 0, 0, 0, 0, 0, 4]\nclass = Obesity_Type_III", fillcolor="#e53986"] ;
242 -> 243 ;
244 [label="Height <= 0.626\ngini = 0.444\nsamples = 3\nvalue = [0, 2, 0, 0, 0, 1, 0]\nclass = Normal_Weight", fillcolor="#dbf29c"] ;
242 -> 244 ;
245 [label="gini = 0.0\nsamples = 1\nvalue = [0, 0, 0, 0, 0, 1, 0]\nclass = Obesity_Type_II", fillcolor="#b139e5"] ;
244 -> 245 ;
246 [label="gini = 0.0\nsamples = 2\nvalue = [0, 2, 0, 0, 0, 0, 0]\nclass = Normal_Weight", fillcolor="#b7e539"] ;
244 -> 246 ;
247 [label="FAF <= 0.591\ngini = 0.5\nsamples = 3\nvalue = [0, 2, 0, 0, 0, 2, 0]\nclass = Normal_Weight", fillcolor="#ffffff"] ;
241 -> 247 ;
248 [label="gini = 0.0\nsamples = 1\nvalue = [0, 2, 0, 0, 0, 0, 0]\nclass = Normal_Weight", fillcolor="#b7e539"] ;
247 -> 248 ;
249 [label="gini = 0.0\nsamples = 2\nvalue = [0, 0, 0, 0, 0, 2, 0]\nclass = Obesity_Type_II", fillcolor="#b139e5"] ;
247 -> 249 ;
250 [label="CAEC_Always <= 0.5\ngini = 0.245\nsamples = 3\nvalue = [0, 1, 0, 0, 0, 6, 0]\nclass = Obesity_Type_II", fillcolor="#be5ae9"] ;
228 -> 250 ;
251 [label="gini = 0.0\nsamples = 2\nvalue = [0, 0, 0, 0, 0, 6, 0]\nclass = Obesity_Type_II", fillcolor="#b139e5"] ;
250 -> 251 ;
252 [label="gini = 0.0\nsamples = 1\nvalue = [0, 1, 0, 0, 0, 0, 0]\nclass = Normal_Weight", fillcolor="#b7e539"] ;
250 -> 252 ;
253 [label="Age <= -0.712\ngini = 0.515\nsamples = 24\nvalue = [0, 1, 5, 1, 0, 5, 24]\nclass = Obesity_Type_III", fillcolor="#ef86b5"] ;
225 -> 253 ;
254 [label="TUE <= -0.959\ngini = 0.124\nsamples = 9\nvalue = [0, 0, 0, 0, 0, 1, 14]\nclass = Obesity_Type_III", fillcolor="#e7478f"] ;
253 -> 254 ;
255 [label="gini = 0.0\nsamples = 1\nvalue = [0, 0, 0, 0, 0, 1, 0]\nclass = Obesity_Type_II", fillcolor="#b139e5"] ;
254 -> 255 ;
256 [label="gini = 0.0\nsamples = 8\nvalue = [0, 0, 0, 0, 0, 0, 14]\nclass = Obesity_Type_III", fillcolor="#e53986"] ;
254 -> 256 ;
257 [label="CH2O <= -0.831\ngini = 0.676\nsamples = 15\nvalue = [0, 1, 5, 1, 0, 4, 10]\nclass = Obesity_Type_III", fillcolor="#f7c1d9"] ;
253 -> 257 ;
258 [label="CALC_Sometimes <= 0.5\ngini = 0.444\nsamples = 2\nvalue = [0, 0, 2, 1, 0, 0, 0]\nclass = Overweight_Level_I", fillcolor="#9cf2a6"] ;
257 -> 258 ;
259 [label="gini = 0.0\nsamples = 1\nvalue = [0, 0, 0, 1, 0, 0, 0]\nclass = Overweight_Level_II", fillcolor="#39e5e2"] ;
258 -> 259 ;
260 [label="gini = 0.0\nsamples = 1\nvalue = [0, 0, 2, 0, 0, 0, 0]\nclass = Overweight_Level_I", fillcolor="#39e54d"] ;
258 -> 260 ;
261 [label="FAF <= 0.591\ngini = 0.611\nsamples = 13\nvalue = [0, 1, 3, 0, 0, 4, 10]\nclass = Obesity_Type_III", fillcolor="#f4aacb"] ;
257 -> 261 ;
262 [label="SMOKE_yes <= 0.5\ngini = 0.32\nsamples = 7\nvalue = [0, 0, 2, 0, 0, 0, 8]\nclass = Obesity_Type_III", fillcolor="#ec6aa4"] ;
261 -> 262 ;
263 [label="Weight <= 0.242\ngini = 0.219\nsamples = 5\nvalue = [0, 0, 1, 0, 0, 0, 7]\nclass = Obesity_Type_III", fillcolor="#e95597"] ;
262 -> 263 ;
264 [label="gini = 0.0\nsamples = 4\nvalue = [0, 0, 0, 0, 0, 0, 7]\nclass = Obesity_Type_III", fillcolor="#e53986"] ;
263 -> 264 ;
265 [label="gini = 0.0\nsamples = 1\nvalue = [0, 0, 1, 0, 0, 0, 0]\nclass = Overweight_Level_I", fillcolor="#39e54d"] ;
263 -> 265 ;
266 [label="MTRANS_Public_Transportation <= 0.5\ngini = 0.5\nsamples = 2\nvalue = [0, 0, 1, 0, 0, 0, 1]\nclass = Overweight_Level_I", fillcolor="#ffffff"] ;
262 -> 266 ;
267 [label="gini = 0.0\nsamples = 1\nvalue = [0, 0, 0, 0, 0, 0, 1]\nclass = Obesity_Type_III", fillcolor="#e53986"] ;
266 -> 267 ;
268 [label="gini = 0.0\nsamples = 1\nvalue = [0, 0, 1, 0, 0, 0, 0]\nclass = Overweight_Level_I", fillcolor="#39e54d"] ;
266 -> 268 ;
269 [label="CH2O <= 0.81\ngini = 0.656\nsamples = 6\nvalue = [0, 1, 1, 0, 0, 4, 2]\nclass = Obesity_Type_II", fillcolor="#e5bdf6"] ;
261 -> 269 ;
270 [label="CALC_Frequently <= 0.5\ngini = 0.5\nsamples = 2\nvalue = [0, 1, 0, 0, 0, 1, 0]\nclass = Normal_Weight", fillcolor="#ffffff"] ;
269 -> 270 ;
271 [label="gini = 0.0\nsamples = 1\nvalue = [0, 1, 0, 0, 0, 0, 0]\nclass = Normal_Weight", fillcolor="#b7e539"] ;
270 -> 271 ;
272 [label="gini = 0.0\nsamples = 1\nvalue = [0, 0, 0, 0, 0, 1, 0]\nclass = Obesity_Type_II", fillcolor="#b139e5"] ;
270 -> 272 ;
273 [label="FAF <= 1.782\ngini = 0.611\nsamples = 4\nvalue = [0, 0, 1, 0, 0, 3, 2]\nclass = Obesity_Type_II", fillcolor="#eccef8"] ;
269 -> 273 ;
274 [label="Weight <= -0.08\ngini = 0.5\nsamples = 2\nvalue = [0, 0, 0, 0, 0, 2, 2]\nclass = Obesity_Type_II", fillcolor="#ffffff"] ;
273 -> 274 ;
275 [label="gini = 0.0\nsamples = 1\nvalue = [0, 0, 0, 0, 0, 0, 2]\nclass = Obesity_Type_III", fillcolor="#e53986"] ;
274 -> 275 ;
276 [label="gini = 0.0\nsamples = 1\nvalue = [0, 0, 0, 0, 0, 2, 0]\nclass = Obesity_Type_II", fillcolor="#b139e5"] ;
274 -> 276 ;
277 [label="SCC_no <= 0.5\ngini = 0.5\nsamples = 2\nvalue = [0, 0, 1, 0, 0, 1, 0]\nclass = Overweight_Level_I", fillcolor="#ffffff"] ;
273 -> 277 ;
278 [label="gini = 0.0\nsamples = 1\nvalue = [0, 0, 0, 0, 0, 1, 0]\nclass = Obesity_Type_II", fillcolor="#b139e5"] ;
277 -> 278 ;
279 [label="gini = 0.0\nsamples = 1\nvalue = [0, 0, 1, 0, 0, 0, 0]\nclass = Overweight_Level_I", fillcolor="#39e54d"] ;
277 -> 279 ;
280 [label="Gender_Female <= 0.5\ngini = 0.624\nsamples = 387\nvalue = [0, 0, 88, 238, 281, 0, 11]\nclass = Obesity_Type_I", fillcolor="#e9ecfc"] ;
0 -> 280 [labeldistance=2.5, labelangle=-45, headlabel="False"] ;
281 [label="CH2O <= 0.277\ngini = 0.439\nsamples = 215\nvalue = [0, 0, 88, 238, 2, 0, 11]\nclass = Overweight_Level_II", fillcolor="#89efee"] ;
280 -> 281 ;
282 [label="Age <= -0.481\ngini = 0.282\nsamples = 149\nvalue = [0, 0, 30, 195, 2, 0, 6]\nclass = Overweight_Level_II", fillcolor="#5eeae7"] ;
281 -> 282 ;
283 [label="FAF <= -0.897\ngini = 0.532\nsamples = 21\nvalue = [0, 0, 20, 13, 2, 0, 0]\nclass = Overweight_Level_I", fillcolor="#c0f7c6"] ;
282 -> 283 ;
284 [label="CALC_Sometimes <= 0.5\ngini = 0.483\nsamples = 12\nvalue = [0, 0, 9, 13, 0, 0, 0]\nclass = Overweight_Level_II", fillcolor="#c2f7f6"] ;
283 -> 284 ;
285 [label="TUE <= 1.63\ngini = 0.484\nsamples = 9\nvalue = [0, 0, 7, 10, 0, 0, 0]\nclass = Overweight_Level_II", fillcolor="#c4f7f6"] ;
284 -> 285 ;
286 [label="CH2O <= -0.292\ngini = 0.165\nsamples = 6\nvalue = [0, 0, 1, 10, 0, 0, 0]\nclass = Overweight_Level_II", fillcolor="#4de8e5"] ;
285 -> 286 ;
287 [label="gini = 0.0\nsamples = 5\nvalue = [0, 0, 0, 10, 0, 0, 0]\nclass = Overweight_Level_II", fillcolor="#39e5e2"] ;
286 -> 287 ;
288 [label="gini = 0.0\nsamples = 1\nvalue = [0, 0, 1, 0, 0, 0, 0]\nclass = Overweight_Level_I", fillcolor="#39e54d"] ;
286 -> 288 ;
289 [label="gini = 0.0\nsamples = 3\nvalue = [0, 0, 6, 0, 0, 0, 0]\nclass = Overweight_Level_I", fillcolor="#39e54d"] ;
285 -> 289 ;
290 [label="NCP <= -0.877\ngini = 0.48\nsamples = 3\nvalue = [0, 0, 2, 3, 0, 0, 0]\nclass = Overweight_Level_II", fillcolor="#bdf6f5"] ;
284 -> 290 ;
291 [label="gini = 0.0\nsamples = 1\nvalue = [0, 0, 0, 3, 0, 0, 0]\nclass = Overweight_Level_II", fillcolor="#39e5e2"] ;
290 -> 291 ;
292 [label="gini = 0.0\nsamples = 2\nvalue = [0, 0, 2, 0, 0, 0, 0]\nclass = Overweight_Level_I", fillcolor="#39e54d"] ;
290 -> 292 ;
293 [label="Height <= 1.724\ngini = 0.26\nsamples = 9\nvalue = [0, 0, 11, 0, 2, 0, 0]\nclass = Overweight_Level_I", fillcolor="#5dea6d"] ;
283 -> 293 ;
294 [label="gini = 0.0\nsamples = 8\nvalue = [0, 0, 11, 0, 0, 0, 0]\nclass = Overweight_Level_I", fillcolor="#39e54d"] ;
293 -> 294 ;
295 [label="gini = 0.0\nsamples = 1\nvalue = [0, 0, 0, 0, 2, 0, 0]\nclass = Obesity_Type_I", fillcolor="#3956e5"] ;
293 -> 295 ;
296 [label="FAF <= 1.186\ngini = 0.152\nsamples = 128\nvalue = [0, 0, 10, 182, 0, 0, 6]\nclass = Overweight_Level_II", fillcolor="#4ae7e4"] ;
282 -> 296 ;
297 [label="FCVC <= 1.074\ngini = 0.126\nsamples = 126\nvalue = [0, 0, 9, 182, 0, 0, 4]\nclass = Overweight_Level_II", fillcolor="#47e7e4"] ;
296 -> 297 ;
298 [label="Height <= 2.309\ngini = 0.088\nsamples = 114\nvalue = [0, 0, 4, 168, 0, 0, 4]\nclass = Overweight_Level_II", fillcolor="#42e6e3"] ;
297 -> 298 ;
299 [label="CALC_Frequently <= 0.5\ngini = 0.046\nsamples = 111\nvalue = [0, 0, 4, 167, 0, 0, 0]\nclass = Overweight_Level_II", fillcolor="#3ee6e3"] ;
298 -> 299 ;
300 [label="CALC_no <= 0.5\ngini = 0.035\nsamples = 108\nvalue = [0, 0, 3, 165, 0, 0, 0]\nclass = Overweight_Level_II", fillcolor="#3de5e3"] ;
299 -> 300 ;
301 [label="Weight <= 0.851\ngini = 0.048\nsamples = 82\nvalue = [0, 0, 3, 120, 0, 0, 0]\nclass = Overweight_Level_II", fillcolor="#3ee6e3"] ;
300 -> 301 ;
302 [label="CH2O <= -0.818\ngini = 0.375\nsamples = 4\nvalue = [0, 0, 3, 1, 0, 0, 0]\nclass = Overweight_Level_I", fillcolor="#7bee88"] ;
301 -> 302 ;
303 [label="gini = 0.0\nsamples = 1\nvalue = [0, 0, 0, 1, 0, 0, 0]\nclass = Overweight_Level_II", fillcolor="#39e5e2"] ;
302 -> 303 ;
304 [label="gini = 0.0\nsamples = 3\nvalue = [0, 0, 3, 0, 0, 0, 0]\nclass = Overweight_Level_I", fillcolor="#39e54d"] ;
302 -> 304 ;
305 [label="gini = 0.0\nsamples = 78\nvalue = [0, 0, 0, 119, 0, 0, 0]\nclass = Overweight_Level_II", fillcolor="#39e5e2"] ;
301 -> 305 ;
306 [label="gini = 0.0\nsamples = 26\nvalue = [0, 0, 0, 45, 0, 0, 0]\nclass = Overweight_Level_II", fillcolor="#39e5e2"] ;
300 -> 306 ;
307 [label="TUE <= 0.59\ngini = 0.444\nsamples = 3\nvalue = [0, 0, 1, 2, 0, 0, 0]\nclass = Overweight_Level_II", fillcolor="#9cf2f0"] ;
299 -> 307 ;
308 [label="gini = 0.0\nsamples = 2\nvalue = [0, 0, 0, 2, 0, 0, 0]\nclass = Overweight_Level_II", fillcolor="#39e5e2"] ;
307 -> 308 ;
309 [label="gini = 0.0\nsamples = 1\nvalue = [0, 0, 1, 0, 0, 0, 0]\nclass = Overweight_Level_I", fillcolor="#39e54d"] ;
307 -> 309 ;
310 [label="CH2O <= -0.829\ngini = 0.32\nsamples = 3\nvalue = [0, 0, 0, 1, 0, 0, 4]\nclass = Obesity_Type_III", fillcolor="#ec6aa4"] ;
298 -> 310 ;
311 [label="Height <= 2.396\ngini = 0.444\nsamples = 2\nvalue = [0, 0, 0, 1, 0, 0, 2]\nclass = Obesity_Type_III", fillcolor="#f29cc2"] ;
310 -> 311 ;
312 [label="gini = 0.0\nsamples = 1\nvalue = [0, 0, 0, 1, 0, 0, 0]\nclass = Overweight_Level_II", fillcolor="#39e5e2"] ;
311 -> 312 ;
313 [label="gini = 0.0\nsamples = 1\nvalue = [0, 0, 0, 0, 0, 0, 2]\nclass = Obesity_Type_III", fillcolor="#e53986"] ;
311 -> 313 ;
314 [label="gini = 0.0\nsamples = 1\nvalue = [0, 0, 0, 0, 0, 0, 2]\nclass = Obesity_Type_III", fillcolor="#e53986"] ;
310 -> 314 ;
315 [label="FAF <= 0.77\ngini = 0.388\nsamples = 12\nvalue = [0, 0, 5, 14, 0, 0, 0]\nclass = Overweight_Level_II", fillcolor="#80eeec"] ;
297 -> 315 ;
316 [label="gini = 0.0\nsamples = 8\nvalue = [0, 0, 0, 14, 0, 0, 0]\nclass = Overweight_Level_II", fillcolor="#39e5e2"] ;
315 -> 316 ;
317 [label="gini = 0.0\nsamples = 4\nvalue = [0, 0, 5, 0, 0, 0, 0]\nclass = Overweight_Level_I", fillcolor="#39e54d"] ;
315 -> 317 ;
318 [label="Age <= 0.626\ngini = 0.444\nsamples = 2\nvalue = [0, 0, 1, 0, 0, 0, 2]\nclass = Obesity_Type_III", fillcolor="#f29cc2"] ;
296 -> 318 ;
319 [label="gini = 0.0\nsamples = 1\nvalue = [0, 0, 0, 0, 0, 0, 2]\nclass = Obesity_Type_III", fillcolor="#e53986"] ;
318 -> 319 ;
320 [label="gini = 0.0\nsamples = 1\nvalue = [0, 0, 1, 0, 0, 0, 0]\nclass = Overweight_Level_I", fillcolor="#39e54d"] ;
318 -> 320 ;
321 [label="FAF <= 1.187\ngini = 0.534\nsamples = 66\nvalue = [0, 0, 58, 43, 0, 0, 5]\nclass = Overweight_Level_I", fillcolor="#d0f9d5"] ;
281 -> 321 ;
322 [label="CH2O <= 0.339\ngini = 0.551\nsamples = 54\nvalue = [0, 0, 36, 43, 0, 0, 5]\nclass = Overweight_Level_II", fillcolor="#e2fbfb"] ;
321 -> 322 ;
323 [label="MTRANS_Automobile <= 0.5\ngini = 0.278\nsamples = 3\nvalue = [0, 0, 1, 0, 0, 0, 5]\nclass = Obesity_Type_III", fillcolor="#ea619e"] ;
322 -> 323 ;
324 [label="NCP <= -1.094\ngini = 0.375\nsamples = 2\nvalue = [0, 0, 1, 0, 0, 0, 3]\nclass = Obesity_Type_III", fillcolor="#ee7bae"] ;
323 -> 324 ;
325 [label="gini = 0.0\nsamples = 1\nvalue = [0, 0, 1, 0, 0, 0, 0]\nclass = Overweight_Level_I", fillcolor="#39e54d"] ;
324 -> 325 ;
326 [label="gini = 0.0\nsamples = 1\nvalue = [0, 0, 0, 0, 0, 0, 3]\nclass = Obesity_Type_III", fillcolor="#e53986"] ;
324 -> 326 ;
327 [label="gini = 0.0\nsamples = 1\nvalue = [0, 0, 0, 0, 0, 0, 2]\nclass = Obesity_Type_III", fillcolor="#e53986"] ;
323 -> 327 ;
328 [label="FCVC <= -0.784\ngini = 0.495\nsamples = 51\nvalue = [0, 0, 35, 43, 0, 0, 0]\nclass = Overweight_Level_II", fillcolor="#dafafa"] ;
322 -> 328 ;
329 [label="SCC_no <= 0.5\ngini = 0.087\nsamples = 15\nvalue = [0, 0, 21, 1, 0, 0, 0]\nclass = Overweight_Level_I", fillcolor="#42e655"] ;
328 -> 329 ;
330 [label="gini = 0.0\nsamples = 1\nvalue = [0, 0, 1, 0, 0, 0, 0]\nclass = Overweight_Level_I", fillcolor="#39e54d"] ;
329 -> 330 ;
331 [label="NCP <= 0.181\ngini = 0.091\nsamples = 14\nvalue = [0, 0, 20, 1, 0, 0, 0]\nclass = Overweight_Level_I", fillcolor="#43e656"] ;
329 -> 331 ;
332 [label="gini = 0.0\nsamples = 5\nvalue = [0, 0, 8, 0, 0, 0, 0]\nclass = Overweight_Level_I", fillcolor="#39e54d"] ;
331 -> 332 ;
333 [label="CH2O <= 0.875\ngini = 0.142\nsamples = 9\nvalue = [0, 0, 12, 1, 0, 0, 0]\nclass = Overweight_Level_I", fillcolor="#49e75c"] ;
331 -> 333 ;
334 [label="gini = 0.0\nsamples = 1\nvalue = [0, 0, 0, 1, 0, 0, 0]\nclass = Overweight_Level_II", fillcolor="#39e5e2"] ;
333 -> 334 ;
335 [label="gini = 0.0\nsamples = 8\nvalue = [0, 0, 12, 0, 0, 0, 0]\nclass = Overweight_Level_I", fillcolor="#39e54d"] ;
333 -> 335 ;
336 [label="Height <= 1.289\ngini = 0.375\nsamples = 36\nvalue = [0, 0, 14, 42, 0, 0, 0]\nclass = Overweight_Level_II", fillcolor="#7beeec"] ;
328 -> 336 ;
337 [label="MTRANS_Automobile <= 0.5\ngini = 0.451\nsamples = 22\nvalue = [0, 0, 11, 21, 0, 0, 0]\nclass = Overweight_Level_II", fillcolor="#a1f3f1"] ;
336 -> 337 ;
338 [label="Weight <= 0.982\ngini = 0.391\nsamples = 10\nvalue = [0, 0, 11, 4, 0, 0, 0]\nclass = Overweight_Level_I", fillcolor="#81ee8e"] ;
337 -> 338 ;
339 [label="gini = 0.0\nsamples = 6\nvalue = [0, 0, 11, 0, 0, 0, 0]\nclass = Overweight_Level_I", fillcolor="#39e54d"] ;
338 -> 339 ;
340 [label="gini = 0.0\nsamples = 4\nvalue = [0, 0, 0, 4, 0, 0, 0]\nclass = Overweight_Level_II", fillcolor="#39e5e2"] ;
338 -> 340 ;
341 [label="gini = 0.0\nsamples = 12\nvalue = [0, 0, 0, 17, 0, 0, 0]\nclass = Overweight_Level_II", fillcolor="#39e5e2"] ;
337 -> 341 ;
342 [label="FAF <= 0.748\ngini = 0.219\nsamples = 14\nvalue = [0, 0, 3, 21, 0, 0, 0]\nclass = Overweight_Level_II", fillcolor="#55e9e6"] ;
336 -> 342 ;
343 [label="FAF <= -0.002\ngini = 0.111\nsamples = 10\nvalue = [0, 0, 1, 16, 0, 0, 0]\nclass = Overweight_Level_II", fillcolor="#45e7e4"] ;
342 -> 343 ;
344 [label="FCVC <= 0.193\ngini = 0.245\nsamples = 4\nvalue = [0, 0, 1, 6, 0, 0, 0]\nclass = Overweight_Level_II", fillcolor="#5ae9e7"] ;
343 -> 344 ;
345 [label="gini = 0.0\nsamples = 1\nvalue = [0, 0, 1, 0, 0, 0, 0]\nclass = Overweight_Level_I", fillcolor="#39e54d"] ;
344 -> 345 ;
346 [label="gini = 0.0\nsamples = 3\nvalue = [0, 0, 0, 6, 0, 0, 0]\nclass = Overweight_Level_II", fillcolor="#39e5e2"] ;
344 -> 346 ;
347 [label="gini = 0.0\nsamples = 6\nvalue = [0, 0, 0, 10, 0, 0, 0]\nclass = Overweight_Level_II", fillcolor="#39e5e2"] ;
343 -> 347 ;
348 [label="Age <= 0.159\ngini = 0.408\nsamples = 4\nvalue = [0, 0, 2, 5, 0, 0, 0]\nclass = Overweight_Level_II", fillcolor="#88efee"] ;
342 -> 348 ;
349 [label="gini = 0.0\nsamples = 3\nvalue = [0, 0, 0, 5, 0, 0, 0]\nclass = Overweight_Level_II", fillcolor="#39e5e2"] ;
348 -> 349 ;
350 [label="gini = 0.0\nsamples = 1\nvalue = [0, 0, 2, 0, 0, 0, 0]\nclass = Overweight_Level_I", fillcolor="#39e54d"] ;
348 -> 350 ;
351 [label="gini = 0.0\nsamples = 12\nvalue = [0, 0, 22, 0, 0, 0, 0]\nclass = Overweight_Level_I", fillcolor="#39e54d"] ;
321 -> 351 ;
352 [label="gini = 0.0\nsamples = 172\nvalue = [0, 0, 0, 0, 279, 0, 0]\nclass = Obesity_Type_I", fillcolor="#3956e5"] ;
280 -> 352 ;
}